node), split, n, deviance, yval, (yprob)
      * denotes terminal node

 1) root 559 774.900 RBM ( 0.49553 0.50447 )  
   2) B6 < 0.167187 262 173.800 OPM ( 0.89695 0.10305 )  
     4) B6 < 0.153358 99   0.000 OPM ( 1.00000 0.00000 ) *
     5) B6 > 0.153358 163 146.300 OPM ( 0.83436 0.16564 )  
      10) HH < -7.42541 108  46.340 OPM ( 0.94444 0.05556 ) *
      11) HH > -7.42541 55  73.140 OPM ( 0.61818 0.38182 ) *
   3) B6 > 0.167187 297 242.100 RBM ( 0.14141 0.85859 )  
     6) HH < -8.35712 43  48.900 OPM ( 0.74419 0.25581 )  
      12) B6 < 0.185532 30   0.000 OPM ( 1.00000 0.00000 ) *
      13) B6 > 0.185532 13  11.160 RBM ( 0.15385 0.84615 ) *
     7) HH > -8.35712 254  84.300 RBM ( 0.03937 0.96063 )  
      14) B6 < 0.226182 249  56.560 RBM ( 0.02410 0.97590 )  
        28) B6 < 0.178854 59  38.800 RBM ( 0.10169 0.89831 ) *
        29) B6 > 0.178854 190   0.000 RBM ( 0.00000 1.00000 ) *
      15) B6 > 0.226182 5   5.004 OPM ( 0.80000 0.20000 ) *

Classification tree:
tree(formula = factor(LC4) ~ HH + B6, data = data.lc4)
Number of terminal nodes:  8 
Residual mean deviance:  0.3166 = 174.5 / 551 
Misclassification error rate: 0.0644 = 36 / 559 
  1   2   4   5  10  11   3   6  12  13   7  14  28  29  15 
277  27   0  27   6  21  42  11   0   2  10   6   6   0   1 
